{
    "in_shape": [
        null,
        null,
        3
    ],
    "layers": [
        {
            "type": "lstm",
            "activation": "",
            "shape": [
                null,
                null,
                16
            ],
            "weights": [
                [
                    [
                        0.13789428770542145,
                        0.8696547746658325,
                        -0.31216421723365784,
                        -0.025511495769023895,
                        0.006336025893688202,
                        -0.01524965837597847,
                        -0.22524790465831757,
                        -0.1404390186071396,
                        -0.03620307892560959,
                        -0.24144092202186584,
                        0.06068415939807892,
                        -0.07184404134750366,
                        0.0855042114853859,
                        0.3028179109096527,
                        0.10610827058553696,
                        -0.37772583961486816,
                        0.0821882039308548,
                        0.19647182524204254,
                        0.027428695932030678,
                        -0.26200640201568604,
                        -0.013813555240631104,
                        -0.17537321150302887,
                        -0.13251939415931702,
                        -0.31656113266944885,
                        0.1505172699689865,
                        0.20332209765911102,
                        -0.27827194333076477,
                        0.27160534262657166,
                        -0.343129962682724,
                        0.26753586530685425,
                        0.20519036054611206,
                        -0.02447880059480667,
                        -0.10457230359315872,
                        -0.3434132933616638,
                        -1.0811189413070679,
                        0.05241554230451584,
                        -0.0009838949190452695,
                        -0.04950762167572975,
                        -0.04335911199450493,
                        -0.2341001182794571,
                        0.16081245243549347,
                        0.01904277317225933,
                        0.02592332474887371,
                        -0.47000524401664734,
                        2.3688414096832275,
                        -0.0205654576420784,
                        -0.06318086385726929,
                        -0.025332942605018616,
                        0.15190038084983826,
                        -0.44762757420539856,
                        -0.010310123674571514,
                        -0.20361509919166565,
                        -0.02475682646036148,
                        -0.04950184375047684,
                        0.10962746292352676,
                        0.10477259755134583,
                        -0.18383096158504486,
                        -0.13618668913841248,
                        -0.08493250608444214,
                        -0.1119561418890953,
                        -0.5862477421760559,
                        -0.08271729201078415,
                        0.06977880001068115,
                        0.2338991016149521
                    ],
                    [
                        -0.3699154853820801,
                        -0.24838794767856598,
                        0.9128098487854004,
                        -0.5771874189376831,
                        -0.05880284309387207,
                        0.09132403135299683,
                        0.44881612062454224,
                        -0.6815917491912842,
                        -0.1166745126247406,
                        -0.3134307265281677,
                        -0.785150945186615,
                        1.0994008779525757,
                        0.6239861845970154,
                        0.1302998811006546,
                        -0.5395453572273254,
                        0.29814794659614563,
                        -0.27910470962524414,
                        0.5108689665794373,
                        0.4770449995994568,
                        0.5412406921386719,
                        0.6589564681053162,
                        0.04806385561823845,
                        0.44189372658729553,
                        0.9697160720825195,
                        -0.22189293801784515,
                        0.7587124705314636,
                        0.8145174980163574,
                        -0.391935259103775,
                        0.1247933879494667,
                        0.2578430771827698,
                        0.11828768998384476,
                        0.4467223584651947,
                        0.2144024521112442,
                        -0.1368194967508316,
                        -0.6608516573905945,
                        -0.038494519889354706,
                        0.24674290418624878,
                        1.0430408716201782,
                        0.7626835703849792,
                        0.4602402150630951,
                        -0.30937060713768005,
                        -0.12338835000991821,
                        0.024021534249186516,
                        -0.45131832361221313,
                        0.19483354687690735,
                        -1.3673121929168701,
                        0.02054046094417572,
                        -0.9272032380104065,
                        -0.5817599296569824,
                        0.2353559285402298,
                        0.7090269923210144,
                        0.0495884008705616,
                        0.3682336211204529,
                        -1.8057862520217896,
                        0.4194560647010803,
                        0.33789703249931335,
                        -0.35560640692710876,
                        0.24928268790245056,
                        0.011709310114383698,
                        0.3532208204269409,
                        0.6305810809135437,
                        0.11846749484539032,
                        0.26454052329063416,
                        -0.6667376756668091
                    ],
                    [
                        -0.48260143399238586,
                        -0.7538807988166809,
                        0.47827643156051636,
                        -0.14735716581344604,
                        -0.422376424074173,
                        0.09030044078826904,
                        0.11731336265802383,
                        -0.4483034610748291,
                        -0.18805146217346191,
                        -0.5289696455001831,
                        -0.5575300455093384,
                        0.32542866468429565,
                        0.1850941926240921,
                        0.051731646060943604,
                        -0.4612452983856201,
                        0.8760735392570496,
                        -0.13289453089237213,
                        0.3123500347137451,
                        0.4947487711906433,
                        0.6952816843986511,
                        0.6477919816970825,
                        -0.049571141600608826,
                        0.018233107402920723,
                        0.6659112572669983,
                        -0.363847553730011,
                        -0.08809005469083786,
                        0.5412911176681519,
                        -0.26083070039749146,
                        -0.04012349620461464,
                        0.10743257403373718,
                        0.09349082410335541,
                        0.749768078327179,
                        0.7452365756034851,
                        -1.0013700723648071,
                        -0.9831218719482422,
                        0.3480462431907654,
                        -0.1141200140118599,
                        -0.12133444845676422,
                        0.41539135575294495,
                        -0.20790326595306396,
                        0.08669835329055786,
                        0.8203228712081909,
                        0.009654575027525425,
                        -0.10432285815477371,
                        0.4547179639339447,
                        1.6351191997528076,
                        0.11162246018648148,
                        -0.4062478542327881,
                        -0.8826705813407898,
                        0.2725915312767029,
                        0.5049036741256714,
                        0.11923395097255707,
                        -0.06895708292722702,
                        -0.4468619227409363,
                        0.24664528667926788,
                        0.4808313548564911,
                        -0.08229770511388779,
                        0.4205699861049652,
                        0.15602096915245056,
                        0.3324962556362152,
                        0.03008890338242054,
                        0.3088913857936859,
                        0.23286302387714386,
                        1.1088659763336182
                    ]
                ],
                [
                    [
                        -0.2315806895494461,
                        -0.8283069133758545,
                        0.16106125712394714,
                        1.177914023399353,
                        1.3227179050445557,
                        -0.32058271765708923,
                        -0.15934424102306366,
                        0.6496670842170715,
                        -0.3830106556415558,
                        0.740288496017456,
                        0.5445621609687805,
                        0.48174840211868286,
                        0.09690871834754944,
                        0.06726010888814926,
                        0.03983299434185028,
                        0.4933067262172699,
                        -0.2502146363258362,
                        -0.18819744884967804,
                        0.67115318775177,
                        -0.8926168084144592,
                        -1.2201652526855469,
                        -0.4010755121707916,
                        -0.12258534878492355,
                        -0.963405191898346,
                        -0.08073994517326355,
                        -0.9001416563987732,
                        -1.18853759765625,
                        0.47211694717407227,
                        0.4426874816417694,
                        -0.24317635595798492,
                        -0.3356321454048157,
                        0.10730864852666855,
                        0.8153129816055298,
                        -0.37027910351753235,
                        -0.3506839871406555,
                        0.11786694824695587,
                        -0.07372163236141205,
                        -0.18066956102848053,
                        0.6480672955513,
                        0.05408024415373802,
                        -0.3398696482181549,
                        0.2866881489753723,
                        0.06633584201335907,
                        -0.42627453804016113,
                        0.08195151388645172,
                        0.22944855690002441,
                        0.07277289777994156,
                        -1.1919633150100708,
                        -1.222766399383545,
                        -0.33371344208717346,
                        -0.25541001558303833,
                        -0.3360929787158966,
                        -0.05351848155260086,
                        -1.0642627477645874,
                        -0.37175488471984863,
                        -0.41978853940963745,
                        -0.02928950823843479,
                        -0.14476324617862701,
                        0.1754467934370041,
                        0.0894046500325203,
                        -0.10548059642314911,
                        -0.37605318427085876,
                        -0.07429689913988113,
                        0.229051411151886
                    ],
                    [
                        0.21084944903850555,
                        0.20312169194221497,
                        -0.5362471342086792,
                        0.13950717449188232,
                        0.0845707505941391,
                        -0.09925331920385361,
                        -0.06767847388982773,
                        0.4010060727596283,
                        0.01996651105582714,
                        0.273858904838562,
                        0.008006173186004162,
                        -0.42940500378608704,
                        -0.5318728089332581,
                        -0.14082232117652893,
                        0.44849416613578796,
                        -0.3229042589664459,
                        -0.038815200328826904,
                        0.538104772567749,
                        -0.486856609582901,
                        -0.35237082839012146,
                        -0.24615001678466797,
                        0.15760056674480438,
                        0.13716788589954376,
                        -0.20579320192337036,
                        0.07542183995246887,
                        -0.2750178873538971,
                        -0.22087867558002472,
                        0.12285604327917099,
                        0.12333063036203384,
                        0.008075165562331676,
                        0.03189890831708908,
                        -0.5474418997764587,
                        0.2754232883453369,
                        -0.8507662415504456,
                        -2.971031665802002,
                        -0.1668187528848648,
                        0.28947243094444275,
                        -0.22728760540485382,
                        0.2507156729698181,
                        -0.02507077157497406,
                        0.06927680969238281,
                        -0.4368818998336792,
                        -0.01704096980392933,
                        0.18437571823596954,
                        0.2177962213754654,
                        0.04093770682811737,
                        -0.3002963662147522,
                        0.3817460834980011,
                        0.4511118531227112,
                        -0.5103392601013184,
                        -0.49511194229125977,
                        -0.18807415664196014,
                        -0.30522221326828003,
                        0.20422770082950592,
                        -0.14374075829982758,
                        -0.22701112926006317,
                        -0.009212493896484375,
                        -0.4321904480457306,
                        0.017388012260198593,
                        -0.25152912735939026,
                        0.1259954422712326,
                        -0.16615985333919525,
                        -0.31286630034446716,
                        0.4023664891719818
                    ],
                    [
                        -0.18501165509223938,
                        0.33155304193496704,
                        -0.17448221147060394,
                        -0.13013817369937897,
                        -0.002925957553088665,
                        -0.05159331113100052,
                        0.010685237124562263,
                        0.43220555782318115,
                        0.06261714547872543,
                        0.3280762732028961,
                        -0.10807228833436966,
                        0.015295330435037613,
                        -0.13392971456050873,
                        0.08619846403598785,
                        -0.525627851486206,
                        0.04665142297744751,
                        0.06223205476999283,
                        0.06368740648031235,
                        0.32199767231941223,
                        0.20795728266239166,
                        0.2002686709165573,
                        -0.30100077390670776,
                        0.13480538129806519,
                        0.10156112164258957,
                        -0.009430496022105217,
                        0.8488720655441284,
                        0.38006460666656494,
                        -0.18400777876377106,
                        -0.017058154568076134,
                        0.12531113624572754,
                        -0.49342456459999084,
                        0.12353616952896118,
                        -0.24173906445503235,
                        0.2614383101463318,
                        0.13614894449710846,
                        0.16075783967971802,
                        1.0290939807891846,
                        -0.16188180446624756,
                        -0.19694577157497406,
                        -0.4292064905166626,
                        0.6181116700172424,
                        0.5746586918830872,
                        -0.19839206337928772,
                        -4.32822847366333,
                        0.08445372432470322,
                        0.04785177484154701,
                        -0.01142479944974184,
                        0.019038930535316467,
                        -0.21536576747894287,
                        -0.7173435091972351,
                        0.012063434347510338,
                        -0.26106733083724976,
                        0.24152255058288574,
                        -0.18583732843399048,
                        -0.043715331703424454,
                        -0.2526581585407257,
                        0.015055572614073753,
                        -0.15869255363941193,
                        0.4986921548843384,
                        -0.10206007957458496,
                        -0.601495623588562,
                        0.1749592274427414,
                        -0.2172633409500122,
                        -0.05828646570444107
                    ],
                    [
                        0.18915057182312012,
                        0.6349790692329407,
                        0.46509742736816406,
                        -0.043694399297237396,
                        -0.19265414774417877,
                        0.006837880238890648,
                        0.039550259709358215,
                        -0.5592525601387024,
                        0.18758057057857513,
                        -0.2354232519865036,
                        -0.6435436010360718,
                        0.22763867676258087,
                        0.24368374049663544,
                        0.12396903336048126,
                        -0.3201216459274292,
                        -0.13666892051696777,
                        -0.07858935743570328,
                        0.05487611144781113,
                        -0.0686974823474884,
                        -0.06168240308761597,
                        -0.34576117992401123,
                        -0.022254491224884987,
                        0.0439705029129982,
                        0.178585484623909,
                        0.0326726995408535,
                        0.45605549216270447,
                        0.002048091497272253,
                        -0.040635429322719574,
                        0.007678455673158169,
                        0.22360268235206604,
                        -0.47394484281539917,
                        0.1985006481409073,
                        0.08892200142145157,
                        0.499761164188385,
                        0.04396068677306175,
                        0.0239926315844059,
                        -0.19489674270153046,
                        0.2024480253458023,
                        -0.33236199617385864,
                        -0.10337891429662704,
                        0.2130872905254364,
                        -0.024320920929312706,
                        -0.7360870242118835,
                        -0.040285591036081314,
                        -0.017524197697639465,
                        0.8099178075790405,
                        -0.211405411362648,
                        -0.49907204508781433,
                        -0.2681159973144531,
                        0.016651298850774765,
                        0.23995263874530792,
                        0.16520078480243683,
                        -0.2384454905986786,
                        0.001091588637791574,
                        0.04971162602305412,
                        -0.17003704607486725,
                        -0.18049708008766174,
                        0.0386495515704155,
                        0.2625276744365692,
                        0.05110953375697136,
                        0.266338586807251,
                        -0.12312249839305878,
                        -0.07536552101373672,
                        -0.3986441195011139
                    ],
                    [
                        0.3775201737880707,
                        0.1822902262210846,
                        -0.28443264961242676,
                        0.48156118392944336,
                        0.5571563243865967,
                        0.17857646942138672,
                        -0.06349310278892517,
                        0.15406878292560577,
                        0.03444087505340576,
                        -0.10647314786911011,
                        -0.026763219386339188,
                        -0.12685371935367584,
                        -0.31658095121383667,
                        0.12813037633895874,
                        -0.01879163458943367,
                        -0.182822585105896,
                        -0.05040791630744934,
                        0.18954682350158691,
                        -0.17646369338035583,
                        0.2555379867553711,
                        -0.3356005549430847,
                        0.370934396982193,
                        -0.22152718901634216,
                        -0.30438658595085144,
                        0.09801431000232697,
                        -0.3903301954269409,
                        -0.53801429271698,
                        0.10601012408733368,
                        -0.24901190400123596,
                        0.311875581741333,
                        -0.4228624999523163,
                        -0.08076001703739166,
                        0.4185832142829895,
                        -0.09669090807437897,
                        -0.4031651020050049,
                        0.35484999418258667,
                        0.4621758759021759,
                        -0.22320163249969482,
                        -0.04700914025306702,
                        -0.41232943534851074,
                        -0.21171990036964417,
                        0.23045891523361206,
                        -0.09250793606042862,
                        -0.014732753857970238,
                        0.6179409027099609,
                        0.015673600137233734,
                        -0.5806974172592163,
                        0.06759453564882278,
                        0.42967814207077026,
                        -0.14535629749298096,
                        -0.24344031512737274,
                        0.20413421094417572,
                        -0.15492385625839233,
                        -0.33551716804504395,
                        -0.09168817847967148,
                        -0.29374930262565613,
                        -0.24197782576084137,
                        -0.17092368006706238,
                        0.1497817188501358,
                        -0.08201415836811066,
                        -0.021442865952849388,
                        -0.04773615673184395,
                        -0.05541151762008667,
                        -1.0276319980621338
                    ],
                    [
                        -0.605014979839325,
                        -0.03407912701368332,
                        0.186170294880867,
                        -0.6100508570671082,
                        -0.5959017872810364,
                        0.07574943453073502,
                        0.275473028421402,
                        -0.6175037026405334,
                        -0.18797175586223602,
                        -0.583501398563385,
                        -0.7497716546058655,
                        0.35258930921554565,
                        0.196325421333313,
                        -0.15206454694271088,
                        0.2222399264574051,
                        0.1878996193408966,
                        -0.4831095039844513,
                        0.16183707118034363,
                        0.04034694656729698,
                        0.20356085896492004,
                        1.0138345956802368,
                        -0.39946043491363525,
                        0.07116799801588058,
                        0.4726419746875763,
                        -0.30177125334739685,
                        0.32188817858695984,
                        0.6388416886329651,
                        -0.26916295289993286,
                        -0.3367670774459839,
                        0.10595893859863281,
                        0.537845253944397,
                        0.05950997769832611,
                        -0.6060718894004822,
                        -0.06750878691673279,
                        -0.057138729840517044,
                        -0.1987171173095703,
                        0.0043009002692997456,
                        0.017076393589377403,
                        -0.9304818511009216,
                        0.16691534221172333,
                        0.02414133958518505,
                        -0.07461627572774887,
                        -1.0929276943206787,
                        -0.11361110210418701,
                        0.042490921914577484,
                        -0.12214362621307373,
                        -0.3874865770339966,
                        0.44518429040908813,
                        0.142710879445076,
                        -0.04315865784883499,
                        0.22498877346515656,
                        0.3015877604484558,
                        0.08925898373126984,
                        2.2442970275878906,
                        0.44111397862434387,
                        0.2633938193321228,
                        0.19831587374210358,
                        0.495233416557312,
                        0.1539754718542099,
                        0.24565763771533966,
                        0.07211927324533463,
                        -0.11436478048563004,
                        0.14703799784183502,
                        0.18139110505580902
                    ],
                    [
                        -0.08726703375577927,
                        -0.3001973628997803,
                        0.4094840884208679,
                        0.11712851375341415,
                        0.32650694251060486,
                        -0.21648162603378296,
                        0.22657519578933716,
                        0.4009113311767578,
                        -0.07335077971220016,
                        -0.04707687348127365,
                        0.6658735871315002,
                        0.8750603199005127,
                        0.03877348452806473,
                        0.1728806346654892,
                        -0.030046669766306877,
                        0.30214375257492065,
                        0.04272989556193352,
                        0.3123178482055664,
                        0.10756168514490128,
                        -0.4390714168548584,
                        -0.27971720695495605,
                        0.3088228702545166,
                        0.005692086182534695,
                        0.3152388334274292,
                        0.005209766793996096,
                        -0.25341376662254333,
                        -0.37710729241371155,
                        0.03334733098745346,
                        0.2676958441734314,
                        0.21628586947917938,
                        0.051749713718891144,
                        -0.01145029254257679,
                        0.09627093374729156,
                        -0.033696677535772324,
                        -0.12434753775596619,
                        0.21384383738040924,
                        0.17868506908416748,
                        0.7240248322486877,
                        -0.06155245006084442,
                        -0.09750693291425705,
                        0.30615106225013733,
                        0.1227119043469429,
                        0.5289705395698547,
                        -0.3986138701438904,
                        -0.009683394804596901,
                        0.16231955587863922,
                        0.05086633190512657,
                        -0.8383558392524719,
                        0.15981946885585785,
                        0.2698555886745453,
                        0.14598165452480316,
                        0.00045120378490537405,
                        -0.0030237766914069653,
                        0.8673980236053467,
                        0.004699896555393934,
                        0.11413417756557465,
                        0.2177668809890747,
                        0.18181152641773224,
                        0.0966138243675232,
                        -0.12760029733181,
                        0.08091787248849869,
                        -0.3886958062648773,
                        0.18167635798454285,
                        0.08200680464506149
                    ],
                    [
                        0.07860156893730164,
                        -0.056633125990629196,
                        1.0752443075180054,
                        0.01500011421740055,
                        0.08683007210493088,
                        -0.55152827501297,
                        0.7818649411201477,
                        0.5957601070404053,
                        0.20497827231884003,
                        -0.10950598120689392,
                        -0.43022826313972473,
                        0.12987636029720306,
                        1.4294735193252563,
                        0.2727527916431427,
                        0.17816004157066345,
                        0.33866965770721436,
                        0.07829292118549347,
                        0.3459985852241516,
                        0.6674115657806396,
                        0.03414546325802803,
                        -0.024145228788256645,
                        -0.41945672035217285,
                        -0.021453119814395905,
                        -0.6317999362945557,
                        -0.6222577095031738,
                        0.30476415157318115,
                        0.1641307771205902,
                        -0.2584535479545593,
                        1.4031137228012085,
                        -0.016419827938079834,
                        0.30665743350982666,
                        -0.03974045440554619,
                        0.22321633994579315,
                        -0.05493003502488136,
                        -0.3102017641067505,
                        0.024707842618227005,
                        0.1689329743385315,
                        -0.001940959133207798,
                        0.0684138759970665,
                        0.45898526906967163,
                        -0.03472322225570679,
                        -0.17435239255428314,
                        0.10863791406154633,
                        -0.19352656602859497,
                        0.2693462371826172,
                        -0.030394932255148888,
                        -0.5218000411987305,
                        0.19462871551513672,
                        0.07884395867586136,
                        -0.19968895614147186,
                        0.4115464687347412,
                        -0.11461777985095978,
                        0.5005127787590027,
                        -0.1129034087061882,
                        0.15617601573467255,
                        -0.07123599201440811,
                        -0.3362301290035248,
                        -0.010735399089753628,
                        0.6365216970443726,
                        0.7188763618469238,
                        1.308261752128601,
                        0.037853632122278214,
                        0.6090707182884216,
                        -0.5850929617881775
                    ],
                    [
                        -0.22389933466911316,
                        -0.030383484438061714,
                        -0.18067032098770142,
                        -0.22121329605579376,
                        0.0890403538942337,
                        0.04068848490715027,
                        0.10683849453926086,
                        0.04028557613492012,
                        -0.03536044433712959,
                        0.03427157923579216,
                        0.3395293354988098,
                        0.08364779502153397,
                        0.18292635679244995,
                        -0.16270232200622559,
                        -0.1003650426864624,
                        -0.22635428607463837,
                        -0.29010146856307983,
                        0.18357950448989868,
                        -0.23955918848514557,
                        -0.4022182822227478,
                        -0.3555772006511688,
                        -0.12732958793640137,
                        0.06588414311408997,
                        -0.09726651757955551,
                        -0.12593640387058258,
                        -0.0787791758775711,
                        0.015034408308565617,
                        -0.22747254371643066,
                        0.16768787801265717,
                        -0.04123387485742569,
                        -0.21199476718902588,
                        0.009971126914024353,
                        -0.06348629295825958,
                        -0.007582811638712883,
                        -0.16950543224811554,
                        0.1348874270915985,
                        -0.03947608917951584,
                        0.5302411317825317,
                        -0.08115191012620926,
                        -0.8508188128471375,
                        0.5311793684959412,
                        0.0950450599193573,
                        -0.49830177426338196,
                        -0.628738522529602,
                        -0.008774512447416782,
                        -0.013461900874972343,
                        0.09754692018032074,
                        0.004355201963335276,
                        0.0833117812871933,
                        0.3022390604019165,
                        -0.044317252933979034,
                        0.13008512556552887,
                        0.03644629567861557,
                        0.48003631830215454,
                        0.13153663277626038,
                        0.17892862856388092,
                        0.12344665825366974,
                        0.37726882100105286,
                        -0.06522191315889359,
                        -0.049635373055934906,
                        -0.15803439915180206,
                        0.03308076411485672,
                        -0.049520138651132584,
                        0.40105190873146057
                    ],
                    [
                        -0.31377044320106506,
                        -0.8555507659912109,
                        -0.03744684159755707,
                        -0.597592294216156,
                        -0.28023549914360046,
                        0.11104747653007507,
                        0.1499340832233429,
                        0.3248857855796814,
                        -0.030141586437821388,
                        0.12066024541854858,
                        -0.23682115972042084,
                        0.0539998933672905,
                        -0.1279391050338745,
                        0.09364296495914459,
                        -0.6347067356109619,
                        0.48959118127822876,
                        -0.002875466365367174,
                        -0.4000440835952759,
                        0.3083043098449707,
                        0.05951573699712753,
                        -0.2825383245944977,
                        0.01909501850605011,
                        -0.06894349306821823,
                        -0.03478062152862549,
                        0.1676599532365799,
                        -0.028533685952425003,
                        0.14265453815460205,
                        0.00556980213150382,
                        0.2362542748451233,
                        -0.09597165137529373,
                        -0.44360673427581787,
                        0.3227938711643219,
                        -0.3697570562362671,
                        -0.3885732591152191,
                        -1.3752214908599854,
                        0.11309414356946945,
                        0.11638693511486053,
                        0.07627595961093903,
                        -0.42563870549201965,
                        0.12773023545742035,
                        0.1585690826177597,
                        0.0075467731803655624,
                        0.22395583987236023,
                        0.6333320140838623,
                        0.42125430703163147,
                        0.0675727128982544,
                        0.15912100672721863,
                        0.2260497510433197,
                        -0.7283259630203247,
                        -0.9703769683837891,
                        0.14465899765491486,
                        -0.12690505385398865,
                        -0.7906509041786194,
                        -0.21329733729362488,
                        0.051904644817113876,
                        0.20966999232769012,
                        -0.13652870059013367,
                        0.11034930497407913,
                        0.0800364762544632,
                        0.07627647370100021,
                        0.18427608907222748,
                        0.4797506034374237,
                        -0.18672627210617065,
                        0.22230499982833862
                    ],
                    [
                        -0.07727748155593872,
                        -0.020611030980944633,
                        0.37601765990257263,
                        0.2402949035167694,
                        -0.39574846625328064,
                        0.17652037739753723,
                        0.01380857266485691,
                        -0.2971027195453644,
                        -0.014457243494689465,
                        0.3175135850906372,
                        0.20817916095256805,
                        0.1897825449705124,
                        0.4058237373828888,
                        0.2505500316619873,
                        -0.2686108946800232,
                        0.5483500957489014,
                        -0.09769123047590256,
                        0.10693453997373581,
                        -0.15563546121120453,
                        0.189445361495018,
                        0.0012196460738778114,
                        0.3010982573032379,
                        -0.2096448838710785,
                        0.4498589038848877,
                        0.05694403499364853,
                        0.36808323860168457,
                        0.259263277053833,
                        -0.3161361515522003,
                        0.3698265850543976,
                        0.47883352637290955,
                        -0.14324651658535004,
                        0.2549557387828827,
                        -0.25101593136787415,
                        -0.43861904740333557,
                        -0.4184931516647339,
                        0.42358532547950745,
                        0.19563187658786774,
                        0.4663708806037903,
                        -0.13054634630680084,
                        -0.32387521862983704,
                        0.014365581795573235,
                        -0.29888567328453064,
                        -0.0200390312820673,
                        -0.07518120110034943,
                        -0.28391560912132263,
                        -0.09826598316431046,
                        0.27654698491096497,
                        -0.17913159728050232,
                        0.06643377989530563,
                        0.06531098484992981,
                        0.3442615866661072,
                        0.11671669036149979,
                        0.20391932129859924,
                        0.25553372502326965,
                        0.14172452688217163,
                        0.19253253936767578,
                        0.0764063373208046,
                        0.21494069695472717,
                        1.1268939971923828,
                        0.24972562491893768,
                        0.3925687074661255,
                        -0.11758819967508316,
                        0.5068418979644775,
                        -0.2633855938911438
                    ],
                    [
                        0.18640273809432983,
                        -0.1400218904018402,
                        0.2591521441936493,
                        0.19089391827583313,
                        0.013602610677480698,
                        0.06336157768964767,
                        -0.23233237862586975,
                        -1.1007248163223267,
                        -0.2160072773694992,
                        -0.12883709371089935,
                        -0.32456472516059875,
                        0.7510567903518677,
                        -0.4016563892364502,
                        -0.17161351442337036,
                        0.030752288177609444,
                        -0.17339549958705902,
                        0.10419980436563492,
                        -0.12529633939266205,
                        -0.08091584593057632,
                        0.11792066693305969,
                        0.18280728161334991,
                        0.2301342636346817,
                        -0.15055623650550842,
                        -0.11711619049310684,
                        0.026553338393568993,
                        -0.1476845145225525,
                        -0.3336513638496399,
                        -0.025238940492272377,
                        -0.045770879834890366,
                        0.08423403650522232,
                        0.41011810302734375,
                        -0.24959692358970642,
                        0.07598952203989029,
                        -0.02430218830704689,
                        0.22028616070747375,
                        -0.15845155715942383,
                        -0.2721753418445587,
                        -0.12697874009609222,
                        0.16121818125247955,
                        0.8616620898246765,
                        1.4306551218032837,
                        -0.1374233514070511,
                        -0.10284491628408432,
                        2.168259382247925,
                        0.0273585245013237,
                        -0.12544958293437958,
                        -0.038990844041109085,
                        0.21822693943977356,
                        -0.1542535424232483,
                        -0.10793627798557281,
                        0.11159835755825043,
                        0.461281955242157,
                        -0.05039330944418907,
                        -0.2050318568944931,
                        0.016802791506052017,
                        -0.45986416935920715,
                        0.04794514179229736,
                        -0.3026111423969269,
                        0.21636047959327698,
                        -0.13734886050224304,
                        0.2967214286327362,
                        0.29321348667144775,
                        -0.1517775058746338,
                        0.8241745829582214
                    ],
                    [
                        0.008081008680164814,
                        0.3761812150478363,
                        -0.0699213296175003,
                        0.21234190464019775,
                        0.08735626190900803,
                        0.012083465233445168,
                        -0.05345078557729721,
                        -0.0560346320271492,
                        -0.009919051080942154,
                        0.0483856126666069,
                        0.2847249209880829,
                        -0.15057900547981262,
                        0.04003201052546501,
                        -0.0947609394788742,
                        0.2536706328392029,
                        -0.24218487739562988,
                        0.06299339234828949,
                        0.08695822209119797,
                        0.04413670673966408,
                        0.028060657903552055,
                        -0.2137630134820938,
                        -0.023181309923529625,
                        0.03754853457212448,
                        -0.18506500124931335,
                        -0.09079492092132568,
                        -0.6529136896133423,
                        -0.221285879611969,
                        0.06809740513563156,
                        -0.18469518423080444,
                        -0.25133880972862244,
                        0.23418357968330383,
                        0.1119353249669075,
                        -0.0030144883785396814,
                        -0.8970780968666077,
                        -2.625389814376831,
                        0.15640103816986084,
                        -0.1350386142730713,
                        -0.2007068395614624,
                        -0.13716444373130798,
                        0.0054803346283733845,
                        -0.19399510324001312,
                        -0.0738687515258789,
                        0.17418509721755981,
                        0.732320249080658,
                        -0.07329581677913666,
                        0.19824647903442383,
                        0.10390172898769379,
                        -0.0730116069316864,
                        0.26822277903556824,
                        0.40146404504776,
                        -0.019258243963122368,
                        -0.10194038599729538,
                        0.743838369846344,
                        0.0589451901614666,
                        -0.029667584225535393,
                        -0.09036173671483994,
                        -0.05034080892801285,
                        0.10120677947998047,
                        -0.06211638078093529,
                        0.0050246319733560085,
                        -0.39084380865097046,
                        0.11674812436103821,
                        0.1464996635913849,
                        -0.06303470581769943
                    ],
                    [
                        -0.0669766440987587,
                        -0.34851861000061035,
                        -0.14483489096164703,
                        0.5881486535072327,
                        0.5344258546829224,
                        0.06811805814504623,
                        -0.23266462981700897,
                        -0.3294823169708252,
                        -0.08678911626338959,
                        0.10238642990589142,
                        0.18531392514705658,
                        -0.39019474387168884,
                        -0.177712082862854,
                        0.0568976104259491,
                        -0.01875799335539341,
                        0.823707103729248,
                        0.23941707611083984,
                        0.11146635562181473,
                        0.28268295526504517,
                        -0.05902856960892677,
                        -0.3701443374156952,
                        0.07768601924180984,
                        -0.15061846375465393,
                        -0.5744065642356873,
                        0.06922560930252075,
                        -0.6378128528594971,
                        -0.49080690741539,
                        0.45186081528663635,
                        0.11920008808374405,
                        -0.03755313903093338,
                        0.058698706328868866,
                        0.14908501505851746,
                        0.21382306516170502,
                        -0.04029062017798424,
                        0.021408744156360626,
                        -0.7293503880500793,
                        -0.20571309328079224,
                        0.079373799264431,
                        0.010973958298563957,
                        -0.24374467134475708,
                        0.004562719259411097,
                        0.09230297058820724,
                        -0.662466824054718,
                        -0.1852739006280899,
                        0.04566308856010437,
                        -0.24995164573192596,
                        -0.044862184673547745,
                        -0.013112925924360752,
                        -0.124595046043396,
                        0.006436636671423912,
                        -0.14380544424057007,
                        -0.16343168914318085,
                        0.3278210461139679,
                        0.5668702721595764,
                        -0.2110672891139984,
                        0.15250654518604279,
                        0.1109805479645729,
                        -0.1230139210820198,
                        0.28818365931510925,
                        0.29967576265335083,
                        -0.42891907691955566,
                        -0.1966453641653061,
                        -0.11731981486082077,
                        1.3810454607009888
                    ],
                    [
                        -0.14973892271518707,
                        0.06174769997596741,
                        -0.05747935548424721,
                        0.01080342847853899,
                        0.4878726005554199,
                        -0.04484092816710472,
                        -0.2460649013519287,
                        0.18406137824058533,
                        -0.14576826989650726,
                        -0.15822191536426544,
                        0.10237191617488861,
                        -0.08416225016117096,
                        -0.014165476895868778,
                        -0.06916768103837967,
                        -0.05879303812980652,
                        0.23824439942836761,
                        0.1263306736946106,
                        0.5458962321281433,
                        0.06583055108785629,
                        0.1748964935541153,
                        -0.03840735927224159,
                        -0.14936938881874084,
                        -0.11583311855792999,
                        0.00859709084033966,
                        -0.045966267585754395,
                        -0.5644721984863281,
                        -0.17694707214832306,
                        0.020773496478796005,
                        -0.017911383882164955,
                        -0.3174130618572235,
                        0.06508942693471909,
                        -0.044821493327617645,
                        -0.2543383836746216,
                        0.5379897952079773,
                        0.6246837973594666,
                        -0.20288419723510742,
                        0.16096624732017517,
                        0.3313932418823242,
                        -0.20254965126514435,
                        0.11519104987382889,
                        -0.11844294518232346,
                        -0.7705479860305786,
                        -0.19016045331954956,
                        0.1578110009431839,
                        -0.044642191380262375,
                        0.15095800161361694,
                        0.055493734776973724,
                        -0.2930396497249603,
                        -0.49720799922943115,
                        -0.12442553043365479,
                        0.04459776729345322,
                        0.14406293630599976,
                        -0.14365369081497192,
                        -0.06195903941988945,
                        -0.14562414586544037,
                        0.1470436155796051,
                        -0.04764550179243088,
                        0.02411101758480072,
                        -0.23782184720039368,
                        -0.2896614372730255,
                        -0.3150792419910431,
                        -0.09616904705762863,
                        -0.20303580164909363,
                        0.5078514218330383
                    ],
                    [
                        -0.24494735896587372,
                        0.07912901788949966,
                        -0.2959532141685486,
                        -0.2532331049442291,
                        -0.5729356408119202,
                        0.17636069655418396,
                        0.04242589697241783,
                        0.11151519417762756,
                        0.18045078217983246,
                        -0.09749061614274979,
                        -0.1341925710439682,
                        -0.366181880235672,
                        -0.04972659423947334,
                        -0.008029025979340076,
                        -0.09219212085008621,
                        0.34151992201805115,
                        0.05634107068181038,
                        0.03727514296770096,
                        0.07376638054847717,
                        0.04487098753452301,
                        0.6044790148735046,
                        -0.14324316382408142,
                        0.3656567633152008,
                        0.6902216672897339,
                        0.038732778280973434,
                        0.4274766445159912,
                        0.5603358149528503,
                        0.3374747037887573,
                        -0.16994960606098175,
                        0.2663593292236328,
                        0.15767638385295868,
                        0.5035935640335083,
                        -0.05995556339621544,
                        -0.028578905388712883,
                        -0.0017418917268514633,
                        0.5816291570663452,
                        0.22312667965888977,
                        -0.367759108543396,
                        0.19647808372974396,
                        0.2525375783443451,
                        -0.11846563220024109,
                        -0.12229957431554794,
                        0.7733195424079895,
                        0.1693435162305832,
                        -0.010022234171628952,
                        -0.0868324339389801,
                        0.04655921459197998,
                        0.3547547161579132,
                        -0.21318666636943817,
                        0.040317635983228683,
                        0.046081360429525375,
                        0.21184653043746948,
                        -0.024847107008099556,
                        -0.32467177510261536,
                        0.3214307427406311,
                        0.29210588335990906,
                        -0.10940930247306824,
                        0.33136022090911865,
                        -0.29931721091270447,
                        -0.16041739284992218,
                        0.030100999400019646,
                        0.22855667769908905,
                        -0.3110320568084717,
                        2.3694546222686768
                    ]
                ],
                [
                    0.7164013385772705,
                    -0.6047509908676147,
                    0.7458198666572571,
                    -1.4622905254364014,
                    -2.4049904346466064,
                    0.826972246170044,
                    0.4453657269477844,
                    -2.493818759918213,
                    0.5596546530723572,
                    -1.8027735948562622,
                    -2.966961145401001,
                    0.4056153893470764,
                    -0.48682478070259094,
                    0.31448429822921753,
                    -0.8772157430648804,
                    -0.03015710599720478,
                    1.4361131191253662,
                    1.665503740310669,
                    -0.09669123589992523,
                    2.7099051475524902,
                    3.117673873901367,
                    0.7363934516906738,
                    0.324605792760849,
                    2.6646361351013184,
                    0.05897606164216995,
                    2.0643529891967773,
                    3.575758457183838,
                    -1.1119508743286133,
                    -1.0281529426574707,
                    1.0213394165039062,
                    0.8692659735679626,
                    0.2695213556289673,
                    -0.4761096239089966,
                    -0.2162855565547943,
                    -0.20160818099975586,
                    -0.36001014709472656,
                    -0.2963492274284363,
                    0.36044153571128845,
                    0.1406305432319641,
                    -0.34848088026046753,
                    -0.1349870264530182,
                    -0.06455360352993011,
                    0.3930256962776184,
                    0.38889938592910767,
                    -0.16509084403514862,
                    0.038165681064128876,
                    -0.13930821418762207,
                    0.6712204217910767,
                    1.7047761678695679,
                    0.9186671376228333,
                    1.2794049978256226,
                    0.7725464105606079,
                    0.1771574318408966,
                    0.15088683366775513,
                    1.084214687347412,
                    1.2599070072174072,
                    0.3041134774684906,
                    1.0108035802841187,
                    0.0639941394329071,
                    0.690662145614624,
                    -0.18743684887886047,
                    1.2569159269332886,
                    0.5742345452308655,
                    0.9099744558334351
                ]
            ]
        },
        {
            "type": "dense",
            "activation": "",
            "shape": [
                null,
                null,
                1
            ],
            "weights": [
                [
                    [
                        0.20473535358905792
                    ],
                    [
                        0.05488292872905731
                    ],
                    [
                        -0.03889972344040871
                    ],
                    [
                        1.0749406814575195
                    ],
                    [
                        0.24179862439632416
                    ],
                    [
                        1.2980363368988037
                    ],
                    [
                        -0.8953946232795715
                    ],
                    [
                        -0.2108018398284912
                    ],
                    [
                        0.6793814301490784
                    ],
                    [
                        -0.3750430643558502
                    ],
                    [
                        0.7628900408744812
                    ],
                    [
                        0.1605144441127777
                    ],
                    [
                        -0.030285269021987915
                    ],
                    [
                        0.9283131957054138
                    ],
                    [
                        0.19529478251934052
                    ],
                    [
                        -1.0952610969543457
                    ]
                ],
                [
                    -0.2621926963329315
                ]
            ]
        }
    ]
}